
\data\
ngram 1=32
ngram 2=60
ngram 3=2

\1-grams:
-0.4592097	</s>
-99	<s>	0.1439393
-1.676694	bed	-0.1156981
-1.676694	bird	-0.1156981
-1.676694	cat	-0.1156981
-1.676694	dog	-0.1156981
-1.676694	down	-0.1156981
-1.676694	eight	-0.1156981
-1.676694	five	-0.1156981
-1.676694	four	-0.1156981
-1.676694	go	-0.1156981
-1.676694	happy	-0.1156981
-1.676694	house	-0.1156981
-1.676694	left	-0.1156981
-1.676694	marvin	-0.1156981
-1.676694	nine	-0.1156981
-1.676694	no	-0.1156981
-1.676694	off	-0.1156981
-1.500602	on	-0.2917894
-1.500602	one	-0.2917894
-1.676694	right	-0.1156981
-1.676694	seven	-0.1156981
-1.676694	sheila	-0.1156981
-1.676694	six	-0.1156981
-1.676694	stop	-0.1156981
-1.676694	three	-0.1156981
-1.676694	tree	-0.1156981
-1.676694	two	-0.1156981
-1.676694	up	-0.1156981
-1.676694	wow	-0.1156981
-1.676694	yes	-0.1156981
-1.676694	zero	-0.1156981

\2-grams:
-1.792392	<s> bed
-1.792392	<s> bird
-1.792392	<s> cat
-1.792392	<s> dog
-1.792392	<s> down
-1.792392	<s> eight
-1.792392	<s> five
-1.792392	<s> four
-1.792392	<s> go
-1.792392	<s> happy
-1.792392	<s> house
-1.792392	<s> left
-1.792392	<s> marvin
-1.792392	<s> nine
-1.792392	<s> no
-1.792392	<s> off
-1.491362	<s> on	0
-1.491362	<s> one	0
-1.792392	<s> right
-1.792392	<s> seven
-1.792392	<s> sheila
-1.792392	<s> six
-1.792392	<s> stop
-1.792392	<s> three
-1.792392	<s> tree
-1.792392	<s> two
-1.792392	<s> up
-1.792392	<s> wow
-1.792392	<s> yes
-1.792392	<s> zero
-0.30103	bed </s>
-0.30103	bird </s>
-0.30103	cat </s>
-0.30103	dog </s>
-0.30103	down </s>
-0.30103	eight </s>
-0.30103	five </s>
-0.30103	four </s>
-0.30103	go </s>
-0.30103	happy </s>
-0.30103	house </s>
-0.30103	left </s>
-0.30103	marvin </s>
-0.30103	nine </s>
-0.30103	no </s>
-0.30103	off </s>
-0.1760913	on </s>
-0.1760913	one </s>
-0.30103	right </s>
-0.30103	seven </s>
-0.30103	sheila </s>
-0.30103	six </s>
-0.30103	stop </s>
-0.30103	three </s>
-0.30103	tree </s>
-0.30103	two </s>
-0.30103	up </s>
-0.30103	wow </s>
-0.30103	yes </s>
-0.30103	zero </s>

\3-grams:
-0.1760913	<s> on </s>
-0.1760913	<s> one </s>

\end\
